|--- task_completed <= 0.82
|   |--- click_count <= 0.28
|   |   |--- completion_time <= -0.07
|   |   |   |--- keyboard_count <= 3.45
|   |   |   |   |--- retry_count <= -0.06
|   |   |   |   |   |--- click_count <= -0.17
|   |   |   |   |   |   |--- feedback_delay <= -0.17
|   |   |   |   |   |   |   |--- completion_time <= -0.07
|   |   |   |   |   |   |   |   |--- completion_time <= -0.07
|   |   |   |   |   |   |   |   |   |--- class: 0
|   |   |   |   |   |   |   |   |--- completion_time >  -0.07
|   |   |   |   |   |   |   |   |   |--- keyboard_count <= 0.98
|   |   |   |   |   |   |   |   |   |   |--- class: 0
|   |   |   |   |   |   |   |   |   |--- keyboard_count >  0.98
|   |   |   |   |   |   |   |   |   |   |--- class: 1
|   |   |   |   |   |   |   |--- completion_time >  -0.07
|   |   |   |   |   |   |   |   |--- keyboard_count <= 1.02
|   |   |   |   |   |   |   |   |   |--- class: 0
|   |   |   |   |   |   |   |   |--- keyboard_count >  1.02
|   |   |   |   |   |   |   |   |   |--- completion_time <= -0.07
|   |   |   |   |   |   |   |   |   |   |--- class: 1
|   |   |   |   |   |   |   |   |   |--- completion_time >  -0.07
|   |   |   |   |   |   |   |   |   |   |--- class: 1
|   |   |   |   |   |   |--- feedback_delay >  -0.17
|   |   |   |   |   |   |   |--- class: 1
|   |   |   |   |   |--- click_count >  -0.17
|   |   |   |   |   |   |--- keyboard_count <= 1.02
|   |   |   |   |   |   |   |--- click_count <= -0.08
|   |   |   |   |   |   |   |   |--- class: 0
|   |   |   |   |   |   |   |--- click_count >  -0.08
|   |   |   |   |   |   |   |   |--- class: 0
|   |   |   |   |   |   |--- keyboard_count >  1.02
|   |   |   |   |   |   |   |--- class: 1
|   |   |   |   |--- retry_count >  -0.06
|   |   |   |   |   |--- completion_time <= -0.07
|   |   |   |   |   |   |--- retry_count <= 0.71
|   |   |   |   |   |   |   |--- retry_count <= 0.33
|   |   |   |   |   |   |   |   |--- class: 0
|   |   |   |   |   |   |   |--- retry_count >  0.33
|   |   |   |   |   |   |   |   |--- class: 0
|   |   |   |   |   |   |--- retry_count >  0.71
|   |   |   |   |   |   |   |--- class: 1
|   |   |   |   |   |--- completion_time >  -0.07
|   |   |   |   |   |   |--- retry_count <= 0.33
|   |   |   |   |   |   |   |--- class: 1
|   |   |   |   |   |   |--- retry_count >  0.33
|   |   |   |   |   |   |   |--- class: 1
|   |   |   |--- keyboard_count >  3.45
|   |   |   |   |--- completion_time <= -0.07
|   |   |   |   |   |--- click_count <= -0.17
|   |   |   |   |   |   |--- feedback_delay <= -0.17
|   |   |   |   |   |   |   |--- class: 0
|   |   |   |   |   |   |--- feedback_delay >  -0.17
|   |   |   |   |   |   |   |--- class: 0
|   |   |   |   |   |--- click_count >  -0.17
|   |   |   |   |   |   |--- class: 1
|   |   |   |   |--- completion_time >  -0.07
|   |   |   |   |   |--- class: 1
|   |   |--- completion_time >  -0.07
|   |   |   |--- feedback_delay <= -0.16
|   |   |   |   |--- click_count <= -0.17
|   |   |   |   |   |--- keyboard_count <= -0.40
|   |   |   |   |   |   |--- click_count <= -0.35
|   |   |   |   |   |   |   |--- class: 0
|   |   |   |   |   |   |--- click_count >  -0.35
|   |   |   |   |   |   |   |--- class: 0
|   |   |   |   |   |--- keyboard_count >  -0.40
|   |   |   |   |   |   |--- completion_time <= -0.07
|   |   |   |   |   |   |   |--- keyboard_count <= 1.02
|   |   |   |   |   |   |   |   |--- keyboard_count <= -0.24
|   |   |   |   |   |   |   |   |   |--- class: 0
|   |   |   |   |   |   |   |   |--- keyboard_count >  -0.24
|   |   |   |   |   |   |   |   |   |--- class: 0
|   |   |   |   |   |   |   |--- keyboard_count >  1.02
|   |   |   |   |   |   |   |   |--- class: 1
|   |   |   |   |   |   |--- completion_time >  -0.07
|   |   |   |   |   |   |   |--- feedback_delay <= -0.17
|   |   |   |   |   |   |   |   |--- keyboard_count <= 1.06
|   |   |   |   |   |   |   |   |   |--- class: 0
|   |   |   |   |   |   |   |   |--- keyboard_count >  1.06
|   |   |   |   |   |   |   |   |   |--- class: 1
|   |   |   |   |   |   |   |--- feedback_delay >  -0.17
|   |   |   |   |   |   |   |   |--- class: 1
|   |   |   |   |--- click_count >  -0.17
|   |   |   |   |   |--- completion_time <= -0.07
|   |   |   |   |   |   |--- retry_count <= -0.06
|   |   |   |   |   |   |   |--- class: 0
|   |   |   |   |   |   |--- retry_count >  -0.06
|   |   |   |   |   |   |   |--- retry_count <= 0.33
|   |   |   |   |   |   |   |   |--- class: 1
|   |   |   |   |   |   |   |--- retry_count >  0.33
|   |   |   |   |   |   |   |   |--- class: 1
|   |   |   |   |   |--- completion_time >  -0.07
|   |   |   |   |   |   |--- scroll_count <= -1.11
|   |   |   |   |   |   |   |--- retry_count <= -0.06
|   |   |   |   |   |   |   |   |--- class: 0
|   |   |   |   |   |   |   |--- retry_count >  -0.06
|   |   |   |   |   |   |   |   |--- retry_count <= 0.33
|   |   |   |   |   |   |   |   |   |--- class: 1
|   |   |   |   |   |   |   |   |--- retry_count >  0.33
|   |   |   |   |   |   |   |   |   |--- class: 1
|   |   |   |   |   |   |--- scroll_count >  -1.11
|   |   |   |   |   |   |   |--- class: 1
|   |   |   |--- feedback_delay >  -0.16
|   |   |   |   |--- class: 1
|   |--- click_count >  0.28
|   |   |--- feedback_delay <= -0.16
|   |   |   |--- click_count <= 0.46
|   |   |   |   |--- completion_time <= -0.07
|   |   |   |   |   |--- keyboard_count <= -0.36
|   |   |   |   |   |   |--- class: 0
|   |   |   |   |   |--- keyboard_count >  -0.36
|   |   |   |   |   |   |--- click_count <= 0.37
|   |   |   |   |   |   |   |--- keyboard_count <= 1.09
|   |   |   |   |   |   |   |   |--- class: 0
|   |   |   |   |   |   |   |--- keyboard_count >  1.09
|   |   |   |   |   |   |   |   |--- class: 1
|   |   |   |   |   |   |--- click_count >  0.37
|   |   |   |   |   |   |   |--- class: 1
|   |   |   |   |--- completion_time >  -0.07
|   |   |   |   |   |--- class: 1
|   |   |   |--- click_count >  0.46
|   |   |   |   |--- feedback_delay <= -0.17
|   |   |   |   |   |--- click_count <= 0.55
|   |   |   |   |   |   |--- class: 1
|   |   |   |   |   |--- click_count >  0.55
|   |   |   |   |   |   |--- class: 1
|   |   |   |   |--- feedback_delay >  -0.17
|   |   |   |   |   |--- keyboard_count <= 0.39
|   |   |   |   |   |   |--- class: 1
|   |   |   |   |   |--- keyboard_count >  0.39
|   |   |   |   |   |   |--- feedback_delay <= -0.17
|   |   |   |   |   |   |   |--- class: 2
|   |   |   |   |   |   |--- feedback_delay >  -0.17
|   |   |   |   |   |   |   |--- class: 2
|   |   |--- feedback_delay >  -0.16
|   |   |   |--- click_count <= 0.41
|   |   |   |   |--- class: 1
|   |   |   |--- click_count >  0.41
|   |   |   |   |--- feedback_delay <= -0.14
|   |   |   |   |   |--- feedback_delay <= -0.16
|   |   |   |   |   |   |--- class: 2
|   |   |   |   |   |--- feedback_delay >  -0.16
|   |   |   |   |   |   |--- class: 1
|   |   |   |   |--- feedback_delay >  -0.14
|   |   |   |   |   |--- class: 2
|--- task_completed >  0.82
|   |--- error_message_clarity <= 3.78
|   |   |--- error_count <= 0.47
|   |   |   |--- feedback_delay <= -0.16
|   |   |   |   |--- retry_count <= -0.06
|   |   |   |   |   |--- click_count <= -0.17
|   |   |   |   |   |   |--- task_completed <= 3.06
|   |   |   |   |   |   |   |--- class: 1
|   |   |   |   |   |   |--- task_completed >  3.06
|   |   |   |   |   |   |   |--- completion_time <= -0.07
|   |   |   |   |   |   |   |   |--- class: 0
|   |   |   |   |   |   |   |--- completion_time >  -0.07
|   |   |   |   |   |   |   |   |--- class: 0
|   |   |   |   |   |--- click_count >  -0.17
|   |   |   |   |   |   |--- click_count <= -0.08
|   |   |   |   |   |   |   |--- class: 2
|   |   |   |   |   |   |--- click_count >  -0.08
|   |   |   |   |   |   |   |--- class: 2
|   |   |   |   |--- retry_count >  -0.06
|   |   |   |   |   |--- completion_time <= -0.06
|   |   |   |   |   |   |--- class: 2
|   |   |   |   |   |--- completion_time >  -0.06
|   |   |   |   |   |   |--- class: 2
|   |   |   |--- feedback_delay >  -0.16
|   |   |   |   |--- scroll_count <= -2.52
|   |   |   |   |   |--- completion_time <= 0.04
|   |   |   |   |   |   |--- task_completed <= 3.06
|   |   |   |   |   |   |   |--- completion_time <= -0.07
|   |   |   |   |   |   |   |   |--- class: 1
|   |   |   |   |   |   |   |--- completion_time >  -0.07
|   |   |   |   |   |   |   |   |--- class: 2
|   |   |   |   |   |   |--- task_completed >  3.06
|   |   |   |   |   |   |   |--- retry_count <= -0.06
|   |   |   |   |   |   |   |   |--- class: 1
|   |   |   |   |   |   |   |--- retry_count >  -0.06
|   |   |   |   |   |   |   |   |--- class: 1
|   |   |   |   |   |--- completion_time >  0.04
|   |   |   |   |   |   |--- class: 0
|   |   |   |   |--- scroll_count >  -2.52
|   |   |   |   |   |--- class: 2
|   |   |--- error_count >  0.47
|   |   |   |--- task_completed <= 3.06
|   |   |   |   |--- completion_time <= -0.07
|   |   |   |   |   |--- click_count <= -0.35
|   |   |   |   |   |   |--- class: 1
|   |   |   |   |   |--- click_count >  -0.35
|   |   |   |   |   |   |--- class: 2
|   |   |   |   |--- completion_time >  -0.07
|   |   |   |   |   |--- class: 2
|   |   |   |--- task_completed >  3.06
|   |   |   |   |--- click_count <= -0.35
|   |   |   |   |   |--- feedback_delay <= -0.14
|   |   |   |   |   |   |--- completion_time <= -0.07
|   |   |   |   |   |   |   |--- class: 0
|   |   |   |   |   |   |--- completion_time >  -0.07
|   |   |   |   |   |   |   |--- class: 1
|   |   |   |   |   |--- feedback_delay >  -0.14
|   |   |   |   |   |   |--- class: 2
|   |   |   |   |--- click_count >  -0.35
|   |   |   |   |   |--- error_count <= 1.65
|   |   |   |   |   |   |--- retry_count <= -0.06
|   |   |   |   |   |   |   |--- click_count <= -0.17
|   |   |   |   |   |   |   |   |--- feedback_delay <= -0.16
|   |   |   |   |   |   |   |   |   |--- class: 1
|   |   |   |   |   |   |   |   |--- feedback_delay >  -0.16
|   |   |   |   |   |   |   |   |   |--- click_count <= -0.26
|   |   |   |   |   |   |   |   |   |   |--- class: 2
|   |   |   |   |   |   |   |   |   |--- click_count >  -0.26
|   |   |   |   |   |   |   |   |   |   |--- class: 2
|   |   |   |   |   |   |   |--- click_count >  -0.17
|   |   |   |   |   |   |   |   |--- completion_time <= -0.05
|   |   |   |   |   |   |   |   |   |--- class: 2
|   |   |   |   |   |   |   |   |--- completion_time >  -0.05
|   |   |   |   |   |   |   |   |   |--- class: 2
|   |   |   |   |   |   |--- retry_count >  -0.06
|   |   |   |   |   |   |   |--- class: 2
|   |   |   |   |   |--- error_count >  1.65
|   |   |   |   |   |   |--- class: 2
|   |--- error_message_clarity >  3.78
|   |   |--- error_message_clarity <= 6.42
|   |   |   |--- class: 1
|   |   |--- error_message_clarity >  6.42
|   |   |   |--- keyboard_count <= -0.32
|   |   |   |   |--- class: 0
|   |   |   |--- keyboard_count >  -0.32
|   |   |   |   |--- class: 0
